network unknown {
}
variable A {
    type discrete [ 2 ] { 0, 1 };
}
variable B {
    type discrete [ 4 ] { 0, 1, 2, 3 };
}
variable C {
    type discrete [ 2 ] { 0, 1 };
}
variable D {
    type discrete [ 3 ] { 0, 1, 2 };
}
probability ( A ) {
    table 0.27408831877479073, 0.7259116812252093 ;
}
probability ( B | A ) {
    ( 0 ) 0.3288518968314237, 0.15852086977799376, 0.27154621434758824, 0.24108101904299434;
    ( 1 ) 0.1006370678641353, 0.323923949395068, 0.3431595880414196, 0.232279394699377;

}
probability ( C | B ) {
    ( 0 ) 0.8669672360111014, 0.13303276398889863;
    ( 1 ) 0.34588050308610735, 0.6541194969138927;
    ( 2 ) 0.9460370790580339, 0.05396292094196611;
    ( 3 ) 0.6739344309551296, 0.3260655690448704;

}
probability ( D | C ) {
    ( 0 ) 0.07119885873076168, 0.5939572926421286, 0.33484384862710964;
    ( 1 ) 0.29418372755177563, 0.12320166236463309, 0.5826146100835913;

}
